digraph Tree {
node [shape=box, style="filled, rounded", color="black", fontname=helvetica] ;
edge [fontname=helvetica] ;
0 [label="X[4] <= 61.5\ngini = 0.24\nsamples = 5280\nvalue = [7246, 1154]", fillcolor="#e99559"] ;
1 [label="X[5] <= 0.5\ngini = 0.03\nsamples = 4580\nvalue = [7158, 129]", fillcolor="#e5833d"] ;
0 -> 1 [labeldistance=2.5, labelangle=45, headlabel="True"] ;
2 [label="X[1] <= 0.5\ngini = 0.03\nsamples = 2164\nvalue = [3406, 53]", fillcolor="#e5833c"] ;
1 -> 2 ;
3 [label="X[9] <= 0.5\ngini = 0.03\nsamples = 1663\nvalue = [2642, 41]", fillcolor="#e5833c"] ;
2 -> 3 ;
4 [label="X[10] <= 0.5\ngini = 0.02\nsamples = 1074\nvalue = [1731, 19]", fillcolor="#e5823b"] ;
3 -> 4 ;
5 [label="X[0] <= 11769.5\ngini = 0.02\nsamples = 687\nvalue = [1138, 9]", fillcolor="#e5823b"] ;
4 -> 5 ;
6 [label="X[3] <= 408.5\ngini = 0.01\nsamples = 674\nvalue = [1118, 6]", fillcolor="#e5823a"] ;
5 -> 6 ;
7 [label="X[2] <= 0.5\ngini = 0.01\nsamples = 665\nvalue = [1105, 5]", fillcolor="#e5823a"] ;
6 -> 7 ;
8 [label="X[0] <= 2003.5\ngini = 0.01\nsamples = 626\nvalue = [1037, 5]", fillcolor="#e5823a"] ;
7 -> 8 ;
9 [label="X[4] <= 18.5\ngini = 0.02\nsamples = 119\nvalue = [191, 2]", fillcolor="#e5823b"] ;
8 -> 9 ;
10 [label="gini = 0.0\nsamples = 116\nvalue = [187, 0]", fillcolor="#e58139"] ;
9 -> 10 ;
11 [label="X[4] <= 23.0\ngini = 0.44\nsamples = 3\nvalue = [4, 2]", fillcolor="#f2c09c"] ;
9 -> 11 ;
12 [label="gini = 0.0\nsamples = 1\nvalue = [0, 2]", fillcolor="#399de5"] ;
11 -> 12 ;
13 [label="gini = 0.0\nsamples = 2\nvalue = [4, 0]", fillcolor="#e58139"] ;
11 -> 13 ;
14 [label="X[4] <= 41.0\ngini = 0.01\nsamples = 507\nvalue = [846, 3]", fillcolor="#e5813a"] ;
8 -> 14 ;
15 [label="X[0] <= 10274.5\ngini = 0.0\nsamples = 502\nvalue = [840, 1]", fillcolor="#e58139"] ;
14 -> 15 ;
16 [label="gini = 0.0\nsamples = 413\nvalue = [685, 0]", fillcolor="#e58139"] ;
15 -> 16 ;
17 [label="X[0] <= 10283.0\ngini = 0.01\nsamples = 89\nvalue = [155, 1]", fillcolor="#e5823a"] ;
15 -> 17 ;
18 [label="gini = 0.0\nsamples = 1\nvalue = [0, 1]", fillcolor="#399de5"] ;
17 -> 18 ;
19 [label="gini = 0.0\nsamples = 88\nvalue = [155, 0]", fillcolor="#e58139"] ;
17 -> 19 ;
20 [label="X[0] <= 8744.0\ngini = 0.38\nsamples = 5\nvalue = [6, 2]", fillcolor="#eeab7b"] ;
14 -> 20 ;
21 [label="X[3] <= 131.5\ngini = 0.44\nsamples = 3\nvalue = [1, 2]", fillcolor="#9ccef2"] ;
20 -> 21 ;
22 [label="gini = 0.0\nsamples = 2\nvalue = [0, 2]", fillcolor="#399de5"] ;
21 -> 22 ;
23 [label="gini = 0.0\nsamples = 1\nvalue = [1, 0]", fillcolor="#e58139"] ;
21 -> 23 ;
24 [label="gini = 0.0\nsamples = 2\nvalue = [5, 0]", fillcolor="#e58139"] ;
20 -> 24 ;
25 [label="gini = 0.0\nsamples = 39\nvalue = [68, 0]", fillcolor="#e58139"] ;
7 -> 25 ;
26 [label="X[3] <= 410.5\ngini = 0.13\nsamples = 9\nvalue = [13, 1]", fillcolor="#e78b48"] ;
6 -> 26 ;
27 [label="X[0] <= 9022.0\ngini = 0.5\nsamples = 2\nvalue = [1, 1]", fillcolor="#ffffff"] ;
26 -> 27 ;
28 [label="gini = 0.0\nsamples = 1\nvalue = [0, 1]", fillcolor="#399de5"] ;
27 -> 28 ;
29 [label="gini = 0.0\nsamples = 1\nvalue = [1, 0]", fillcolor="#e58139"] ;
27 -> 29 ;
30 [label="gini = 0.0\nsamples = 7\nvalue = [12, 0]", fillcolor="#e58139"] ;
26 -> 30 ;
31 [label="X[3] <= 243.5\ngini = 0.23\nsamples = 13\nvalue = [20, 3]", fillcolor="#e99457"] ;
5 -> 31 ;
32 [label="gini = 0.0\nsamples = 9\nvalue = [15, 0]", fillcolor="#e58139"] ;
31 -> 32 ;
33 [label="X[0] <= 11795.0\ngini = 0.47\nsamples = 4\nvalue = [5, 3]", fillcolor="#f5cdb0"] ;
31 -> 33 ;
34 [label="gini = 0.0\nsamples = 1\nvalue = [0, 3]", fillcolor="#399de5"] ;
33 -> 34 ;
35 [label="gini = 0.0\nsamples = 3\nvalue = [5, 0]", fillcolor="#e58139"] ;
33 -> 35 ;
36 [label="X[3] <= 295.5\ngini = 0.03\nsamples = 387\nvalue = [593, 10]", fillcolor="#e5833c"] ;
4 -> 36 ;
37 [label="X[4] <= 42.5\ngini = 0.04\nsamples = 337\nvalue = [519, 10]", fillcolor="#e6833d"] ;
36 -> 37 ;
38 [label="X[0] <= 8496.0\ngini = 0.02\nsamples = 329\nvalue = [511, 6]", fillcolor="#e5823b"] ;
37 -> 38 ;
39 [label="X[3] <= 288.5\ngini = 0.03\nsamples = 220\nvalue = [331, 6]", fillcolor="#e5833d"] ;
38 -> 39 ;
40 [label="X[3] <= 117.5\ngini = 0.03\nsamples = 219\nvalue = [331, 5]", fillcolor="#e5833c"] ;
39 -> 40 ;
41 [label="X[2] <= 0.5\ngini = 0.01\nsamples = 134\nvalue = [198, 1]", fillcolor="#e5823a"] ;
40 -> 41 ;
42 [label="X[0] <= 3239.0\ngini = 0.01\nsamples = 129\nvalue = [191, 1]", fillcolor="#e5823a"] ;
41 -> 42 ;
43 [label="X[0] <= 3219.0\ngini = 0.02\nsamples = 52\nvalue = [82, 1]", fillcolor="#e5833b"] ;
42 -> 43 ;
44 [label="gini = 0.0\nsamples = 51\nvalue = [82, 0]", fillcolor="#e58139"] ;
43 -> 44 ;
45 [label="gini = 0.0\nsamples = 1\nvalue = [0, 1]", fillcolor="#399de5"] ;
43 -> 45 ;
46 [label="gini = 0.0\nsamples = 77\nvalue = [109, 0]", fillcolor="#e58139"] ;
42 -> 46 ;
47 [label="gini = 0.0\nsamples = 5\nvalue = [7, 0]", fillcolor="#e58139"] ;
41 -> 47 ;
48 [label="X[2] <= 0.5\ngini = 0.06\nsamples = 85\nvalue = [133, 4]", fillcolor="#e6853f"] ;
40 -> 48 ;
49 [label="X[3] <= 119.0\ngini = 0.06\nsamples = 83\nvalue = [130, 4]", fillcolor="#e6853f"] ;
48 -> 49 ;
50 [label="gini = 0.0\nsamples = 1\nvalue = [0, 2]", fillcolor="#399de5"] ;
49 -> 50 ;
51 [label="X[4] <= 14.0\ngini = 0.03\nsamples = 82\nvalue = [130, 2]", fillcolor="#e5833c"] ;
49 -> 51 ;
52 [label="gini = 0.0\nsamples = 75\nvalue = [116, 0]", fillcolor="#e58139"] ;
51 -> 52 ;
53 [label="X[0] <= 7161.5\ngini = 0.22\nsamples = 7\nvalue = [14, 2]", fillcolor="#e99355"] ;
51 -> 53 ;
54 [label="gini = 0.0\nsamples = 4\nvalue = [13, 0]", fillcolor="#e58139"] ;
53 -> 54 ;
55 [label="X[0] <= 7382.0\ngini = 0.44\nsamples = 3\nvalue = [1, 2]", fillcolor="#9ccef2"] ;
53 -> 55 ;
56 [label="gini = 0.0\nsamples = 1\nvalue = [0, 1]", fillcolor="#399de5"] ;
55 -> 56 ;
57 [label="X[0] <= 7951.5\ngini = 0.5\nsamples = 2\nvalue = [1, 1]", fillcolor="#ffffff"] ;
55 -> 57 ;
58 [label="gini = 0.0\nsamples = 1\nvalue = [1, 0]", fillcolor="#e58139"] ;
57 -> 58 ;
59 [label="gini = 0.0\nsamples = 1\nvalue = [0, 1]", fillcolor="#399de5"] ;
57 -> 59 ;
60 [label="gini = 0.0\nsamples = 2\nvalue = [3, 0]", fillcolor="#e58139"] ;
48 -> 60 ;
61 [label="gini = 0.0\nsamples = 1\nvalue = [0, 1]", fillcolor="#399de5"] ;
39 -> 61 ;
62 [label="gini = 0.0\nsamples = 109\nvalue = [180, 0]", fillcolor="#e58139"] ;
38 -> 62 ;
63 [label="X[4] <= 47.0\ngini = 0.44\nsamples = 8\nvalue = [8, 4]", fillcolor="#f2c09c"] ;
37 -> 63 ;
64 [label="gini = 0.0\nsamples = 1\nvalue = [0, 1]", fillcolor="#399de5"] ;
63 -> 64 ;
65 [label="X[0] <= 8417.5\ngini = 0.4\nsamples = 7\nvalue = [8, 3]", fillcolor="#efb083"] ;
63 -> 65 ;
66 [label="X[3] <= 10.0\ngini = 0.22\nsamples = 4\nvalue = [7, 1]", fillcolor="#e99355"] ;
65 -> 66 ;
67 [label="gini = 0.0\nsamples = 1\nvalue = [0, 1]", fillcolor="#399de5"] ;
66 -> 67 ;
68 [label="gini = 0.0\nsamples = 3\nvalue = [7, 0]", fillcolor="#e58139"] ;
66 -> 68 ;
69 [label="X[3] <= 99.5\ngini = 0.44\nsamples = 3\nvalue = [1, 2]", fillcolor="#9ccef2"] ;
65 -> 69 ;
70 [label="gini = 0.0\nsamples = 1\nvalue = [0, 1]", fillcolor="#399de5"] ;
69 -> 70 ;
71 [label="X[3] <= 185.0\ngini = 0.5\nsamples = 2\nvalue = [1, 1]", fillcolor="#ffffff"] ;
69 -> 71 ;
72 [label="gini = 0.0\nsamples = 1\nvalue = [1, 0]", fillcolor="#e58139"] ;
71 -> 72 ;
73 [label="gini = 0.0\nsamples = 1\nvalue = [0, 1]", fillcolor="#399de5"] ;
71 -> 73 ;
74 [label="gini = 0.0\nsamples = 50\nvalue = [74, 0]", fillcolor="#e58139"] ;
36 -> 74 ;
75 [label="X[4] <= 10.5\ngini = 0.05\nsamples = 589\nvalue = [911, 22]", fillcolor="#e6843e"] ;
3 -> 75 ;
76 [label="gini = 0.0\nsamples = 532\nvalue = [844, 0]", fillcolor="#e58139"] ;
75 -> 76 ;
77 [label="X[3] <= 269.5\ngini = 0.37\nsamples = 57\nvalue = [67, 22]", fillcolor="#eeaa7a"] ;
75 -> 77 ;
78 [label="X[3] <= 204.5\ngini = 0.28\nsamples = 45\nvalue = [60, 12]", fillcolor="#ea9a61"] ;
77 -> 78 ;
79 [label="X[0] <= 11796.0\ngini = 0.33\nsamples = 37\nvalue = [45, 12]", fillcolor="#eca36e"] ;
78 -> 79 ;
80 [label="X[2] <= 0.5\ngini = 0.3\nsamples = 36\nvalue = [45, 10]", fillcolor="#eb9d65"] ;
79 -> 80 ;
81 [label="X[4] <= 44.5\ngini = 0.31\nsamples = 34\nvalue = [43, 10]", fillcolor="#eb9e67"] ;
80 -> 81 ;
82 [label="X[3] <= 192.0\ngini = 0.09\nsamples = 26\nvalue = [39, 2]", fillcolor="#e68743"] ;
81 -> 82 ;
83 [label="X[4] <= 25.5\ngini = 0.05\nsamples = 25\nvalue = [39, 1]", fillcolor="#e6843e"] ;
82 -> 83 ;
84 [label="gini = 0.0\nsamples = 15\nvalue = [26, 0]", fillcolor="#e58139"] ;
83 -> 84 ;
85 [label="X[0] <= 10257.5\ngini = 0.13\nsamples = 10\nvalue = [13, 1]", fillcolor="#e78b48"] ;
83 -> 85 ;
86 [label="gini = 0.0\nsamples = 7\nvalue = [9, 0]", fillcolor="#e58139"] ;
85 -> 86 ;
87 [label="X[0] <= 11090.5\ngini = 0.32\nsamples = 3\nvalue = [4, 1]", fillcolor="#eca06a"] ;
85 -> 87 ;
88 [label="gini = 0.0\nsamples = 1\nvalue = [0, 1]", fillcolor="#399de5"] ;
87 -> 88 ;
89 [label="gini = 0.0\nsamples = 2\nvalue = [4, 0]", fillcolor="#e58139"] ;
87 -> 89 ;
90 [label="gini = 0.0\nsamples = 1\nvalue = [0, 1]", fillcolor="#399de5"] ;
82 -> 90 ;
91 [label="X[4] <= 50.5\ngini = 0.44\nsamples = 8\nvalue = [4, 8]", fillcolor="#9ccef2"] ;
81 -> 91 ;
92 [label="gini = 0.0\nsamples = 5\nvalue = [0, 7]", fillcolor="#399de5"] ;
91 -> 92 ;
93 [label="X[3] <= 57.0\ngini = 0.32\nsamples = 3\nvalue = [4, 1]", fillcolor="#eca06a"] ;
91 -> 93 ;
94 [label="gini = 0.0\nsamples = 2\nvalue = [4, 0]", fillcolor="#e58139"] ;
93 -> 94 ;
95 [label="gini = 0.0\nsamples = 1\nvalue = [0, 1]", fillcolor="#399de5"] ;
93 -> 95 ;
96 [label="gini = 0.0\nsamples = 2\nvalue = [2, 0]", fillcolor="#e58139"] ;
80 -> 96 ;
97 [label="gini = 0.0\nsamples = 1\nvalue = [0, 2]", fillcolor="#399de5"] ;
79 -> 97 ;
98 [label="gini = 0.0\nsamples = 8\nvalue = [15, 0]", fillcolor="#e58139"] ;
78 -> 98 ;
99 [label="X[0] <= 482.0\ngini = 0.48\nsamples = 12\nvalue = [7, 10]", fillcolor="#c4e2f7"] ;
77 -> 99 ;
100 [label="gini = 0.0\nsamples = 2\nvalue = [0, 2]", fillcolor="#399de5"] ;
99 -> 100 ;
101 [label="X[0] <= 2576.0\ngini = 0.5\nsamples = 10\nvalue = [7, 8]", fillcolor="#e6f3fc"] ;
99 -> 101 ;
102 [label="gini = 0.0\nsamples = 2\nvalue = [2, 0]", fillcolor="#e58139"] ;
101 -> 102 ;
103 [label="X[0] <= 3236.5\ngini = 0.47\nsamples = 8\nvalue = [5, 8]", fillcolor="#b5daf5"] ;
101 -> 103 ;
104 [label="gini = 0.0\nsamples = 1\nvalue = [0, 3]", fillcolor="#399de5"] ;
103 -> 104 ;
105 [label="X[3] <= 295.5\ngini = 0.5\nsamples = 7\nvalue = [5, 5]", fillcolor="#ffffff"] ;
103 -> 105 ;
106 [label="gini = 0.0\nsamples = 1\nvalue = [2, 0]", fillcolor="#e58139"] ;
105 -> 106 ;
107 [label="X[4] <= 20.0\ngini = 0.47\nsamples = 6\nvalue = [3, 5]", fillcolor="#b0d8f5"] ;
105 -> 107 ;
108 [label="X[0] <= 8858.0\ngini = 0.32\nsamples = 3\nvalue = [1, 4]", fillcolor="#6ab6ec"] ;
107 -> 108 ;
109 [label="gini = 0.0\nsamples = 1\nvalue = [1, 0]", fillcolor="#e58139"] ;
108 -> 109 ;
110 [label="gini = 0.0\nsamples = 2\nvalue = [0, 4]", fillcolor="#399de5"] ;
108 -> 110 ;
111 [label="X[3] <= 369.5\ngini = 0.44\nsamples = 3\nvalue = [2, 1]", fillcolor="#f2c09c"] ;
107 -> 111 ;
112 [label="gini = 0.0\nsamples = 2\nvalue = [2, 0]", fillcolor="#e58139"] ;
111 -> 112 ;
113 [label="gini = 0.0\nsamples = 1\nvalue = [0, 1]", fillcolor="#399de5"] ;
111 -> 113 ;
114 [label="X[10] <= 0.5\ngini = 0.03\nsamples = 501\nvalue = [764, 12]", fillcolor="#e5833c"] ;
2 -> 114 ;
115 [label="X[4] <= 42.5\ngini = 0.02\nsamples = 376\nvalue = [580, 6]", fillcolor="#e5823b"] ;
114 -> 115 ;
116 [label="X[4] <= 6.5\ngini = 0.01\nsamples = 367\nvalue = [570, 2]", fillcolor="#e5813a"] ;
115 -> 116 ;
117 [label="gini = 0.0\nsamples = 344\nvalue = [533, 0]", fillcolor="#e58139"] ;
116 -> 117 ;
118 [label="X[3] <= 96.0\ngini = 0.1\nsamples = 23\nvalue = [37, 2]", fillcolor="#e68844"] ;
116 -> 118 ;
119 [label="X[9] <= 0.5\ngini = 0.35\nsamples = 6\nvalue = [7, 2]", fillcolor="#eca572"] ;
118 -> 119 ;
120 [label="X[3] <= 72.0\ngini = 0.48\nsamples = 3\nvalue = [3, 2]", fillcolor="#f6d5bd"] ;
119 -> 120 ;
121 [label="gini = 0.0\nsamples = 2\nvalue = [3, 0]", fillcolor="#e58139"] ;
120 -> 121 ;
122 [label="gini = 0.0\nsamples = 1\nvalue = [0, 2]", fillcolor="#399de5"] ;
120 -> 122 ;
123 [label="gini = 0.0\nsamples = 3\nvalue = [4, 0]", fillcolor="#e58139"] ;
119 -> 123 ;
124 [label="gini = 0.0\nsamples = 17\nvalue = [30, 0]", fillcolor="#e58139"] ;
118 -> 124 ;
125 [label="X[0] <= 6246.5\ngini = 0.41\nsamples = 9\nvalue = [10, 4]", fillcolor="#efb388"] ;
115 -> 125 ;
126 [label="gini = 0.0\nsamples = 5\nvalue = [9, 0]", fillcolor="#e58139"] ;
125 -> 126 ;
127 [label="X[3] <= 292.5\ngini = 0.32\nsamples = 4\nvalue = [1, 4]", fillcolor="#6ab6ec"] ;
125 -> 127 ;
128 [label="gini = 0.0\nsamples = 3\nvalue = [0, 4]", fillcolor="#399de5"] ;
127 -> 128 ;
129 [label="gini = 0.0\nsamples = 1\nvalue = [1, 0]", fillcolor="#e58139"] ;
127 -> 129 ;
130 [label="X[0] <= 3135.5\ngini = 0.06\nsamples = 125\nvalue = [184, 6]", fillcolor="#e6853f"] ;
114 -> 130 ;
131 [label="gini = 0.0\nsamples = 27\nvalue = [43, 0]", fillcolor="#e58139"] ;
130 -> 131 ;
132 [label="X[3] <= 272.5\ngini = 0.08\nsamples = 98\nvalue = [141, 6]", fillcolor="#e68641"] ;
130 -> 132 ;
133 [label="X[4] <= 35.5\ngini = 0.02\nsamples = 75\nvalue = [110, 1]", fillcolor="#e5823b"] ;
132 -> 133 ;
134 [label="gini = 0.0\nsamples = 74\nvalue = [110, 0]", fillcolor="#e58139"] ;
133 -> 134 ;
135 [label="gini = 0.0\nsamples = 1\nvalue = [0, 1]", fillcolor="#399de5"] ;
133 -> 135 ;
136 [label="X[3] <= 278.0\ngini = 0.24\nsamples = 23\nvalue = [31, 5]", fillcolor="#e99559"] ;
132 -> 136 ;
137 [label="gini = 0.0\nsamples = 1\nvalue = [0, 2]", fillcolor="#399de5"] ;
136 -> 137 ;
138 [label="X[4] <= 16.5\ngini = 0.16\nsamples = 22\nvalue = [31, 3]", fillcolor="#e88d4c"] ;
136 -> 138 ;
139 [label="gini = 0.0\nsamples = 20\nvalue = [31, 0]", fillcolor="#e58139"] ;
138 -> 139 ;
140 [label="gini = 0.0\nsamples = 2\nvalue = [0, 3]", fillcolor="#399de5"] ;
138 -> 140 ;
141 [label="X[3] <= 385.5\ngini = 0.04\nsamples = 2416\nvalue = [3752, 76]", fillcolor="#e6843d"] ;
1 -> 141 ;
142 [label="X[1] <= 0.5\ngini = 0.04\nsamples = 2336\nvalue = [3647, 68]", fillcolor="#e5833d"] ;
141 -> 142 ;
143 [label="X[4] <= 24.5\ngini = 0.03\nsamples = 1770\nvalue = [2794, 44]", fillcolor="#e5833c"] ;
142 -> 143 ;
144 [label="X[0] <= 3241.5\ngini = 0.01\nsamples = 1690\nvalue = [2699, 8]", fillcolor="#e5813a"] ;
143 -> 144 ;
145 [label="X[3] <= 338.5\ngini = 0.01\nsamples = 424\nvalue = [691, 5]", fillcolor="#e5823a"] ;
144 -> 145 ;
146 [label="X[0] <= 487.0\ngini = 0.01\nsamples = 396\nvalue = [648, 3]", fillcolor="#e5823a"] ;
145 -> 146 ;
147 [label="X[4] <= 11.0\ngini = 0.03\nsamples = 51\nvalue = [76, 1]", fillcolor="#e5833c"] ;
146 -> 147 ;
148 [label="gini = 0.0\nsamples = 50\nvalue = [76, 0]", fillcolor="#e58139"] ;
147 -> 148 ;
149 [label="gini = 0.0\nsamples = 1\nvalue = [0, 1]", fillcolor="#399de5"] ;
147 -> 149 ;
150 [label="X[3] <= 225.5\ngini = 0.01\nsamples = 345\nvalue = [572, 2]", fillcolor="#e5813a"] ;
146 -> 150 ;
151 [label="X[3] <= 13.5\ngini = 0.0\nsamples = 283\nvalue = [464, 1]", fillcolor="#e58139"] ;
150 -> 151 ;
152 [label="X[6] <= 0.5\ngini = 0.02\nsamples = 79\nvalue = [129, 1]", fillcolor="#e5823b"] ;
151 -> 152 ;
153 [label="X[0] <= 1383.5\ngini = 0.03\nsamples = 46\nvalue = [72, 1]", fillcolor="#e5833c"] ;
152 -> 153 ;
154 [label="X[0] <= 1369.0\ngini = 0.09\nsamples = 15\nvalue = [20, 1]", fillcolor="#e68743"] ;
153 -> 154 ;
155 [label="gini = 0.0\nsamples = 14\nvalue = [20, 0]", fillcolor="#e58139"] ;
154 -> 155 ;
156 [label="gini = 0.0\nsamples = 1\nvalue = [0, 1]", fillcolor="#399de5"] ;
154 -> 156 ;
157 [label="gini = 0.0\nsamples = 31\nvalue = [52, 0]", fillcolor="#e58139"] ;
153 -> 157 ;
158 [label="gini = 0.0\nsamples = 33\nvalue = [57, 0]", fillcolor="#e58139"] ;
152 -> 158 ;
159 [label="gini = 0.0\nsamples = 204\nvalue = [335, 0]", fillcolor="#e58139"] ;
151 -> 159 ;
160 [label="X[0] <= 2285.5\ngini = 0.02\nsamples = 62\nvalue = [108, 1]", fillcolor="#e5823b"] ;
150 -> 160 ;
161 [label="gini = 0.0\nsamples = 36\nvalue = [62, 0]", fillcolor="#e58139"] ;
160 -> 161 ;
162 [label="X[6] <= 0.5\ngini = 0.04\nsamples = 26\nvalue = [46, 1]", fillcolor="#e6843d"] ;
160 -> 162 ;
163 [label="gini = 0.0\nsamples = 17\nvalue = [29, 0]", fillcolor="#e58139"] ;
162 -> 163 ;
164 [label="X[0] <= 2440.0\ngini = 0.1\nsamples = 9\nvalue = [17, 1]", fillcolor="#e78845"] ;
162 -> 164 ;
165 [label="gini = 0.0\nsamples = 1\nvalue = [0, 1]", fillcolor="#399de5"] ;
164 -> 165 ;
166 [label="gini = 0.0\nsamples = 8\nvalue = [17, 0]", fillcolor="#e58139"] ;
164 -> 166 ;
167 [label="X[4] <= 5.0\ngini = 0.08\nsamples = 28\nvalue = [43, 2]", fillcolor="#e68742"] ;
145 -> 167 ;
168 [label="gini = 0.0\nsamples = 25\nvalue = [38, 0]", fillcolor="#e58139"] ;
167 -> 168 ;
169 [label="X[3] <= 342.0\ngini = 0.41\nsamples = 3\nvalue = [5, 2]", fillcolor="#efb388"] ;
167 -> 169 ;
170 [label="gini = 0.0\nsamples = 1\nvalue = [0, 2]", fillcolor="#399de5"] ;
169 -> 170 ;
171 [label="gini = 0.0\nsamples = 2\nvalue = [5, 0]", fillcolor="#e58139"] ;
169 -> 171 ;
172 [label="X[2] <= 0.5\ngini = 0.0\nsamples = 1266\nvalue = [2008, 3]", fillcolor="#e58139"] ;
144 -> 172 ;
173 [label="X[0] <= 9963.5\ngini = 0.0\nsamples = 1195\nvalue = [1901, 3]", fillcolor="#e58139"] ;
172 -> 173 ;
174 [label="X[4] <= 18.5\ngini = 0.0\nsamples = 930\nvalue = [1470, 1]", fillcolor="#e58139"] ;
173 -> 174 ;
175 [label="gini = 0.0\nsamples = 913\nvalue = [1447, 0]", fillcolor="#e58139"] ;
174 -> 175 ;
176 [label="X[4] <= 19.5\ngini = 0.08\nsamples = 17\nvalue = [23, 1]", fillcolor="#e68642"] ;
174 -> 176 ;
177 [label="X[3] <= 274.5\ngini = 0.38\nsamples = 4\nvalue = [3, 1]", fillcolor="#eeab7b"] ;
176 -> 177 ;
178 [label="gini = 0.0\nsamples = 2\nvalue = [2, 0]", fillcolor="#e58139"] ;
177 -> 178 ;
179 [label="X[6] <= 0.5\ngini = 0.5\nsamples = 2\nvalue = [1, 1]", fillcolor="#ffffff"] ;
177 -> 179 ;
180 [label="gini = 0.0\nsamples = 1\nvalue = [1, 0]", fillcolor="#e58139"] ;
179 -> 180 ;
181 [label="gini = 0.0\nsamples = 1\nvalue = [0, 1]", fillcolor="#399de5"] ;
179 -> 181 ;
182 [label="gini = 0.0\nsamples = 13\nvalue = [20, 0]", fillcolor="#e58139"] ;
176 -> 182 ;
183 [label="X[7] <= 0.5\ngini = 0.01\nsamples = 265\nvalue = [431, 2]", fillcolor="#e5823a"] ;
173 -> 183 ;
184 [label="X[0] <= 9969.0\ngini = 0.01\nsamples = 106\nvalue = [175, 1]", fillcolor="#e5823a"] ;
183 -> 184 ;
185 [label="gini = 0.0\nsamples = 1\nvalue = [0, 1]", fillcolor="#399de5"] ;
184 -> 185 ;
186 [label="gini = 0.0\nsamples = 105\nvalue = [175, 0]", fillcolor="#e58139"] ;
184 -> 186 ;
187 [label="X[4] <= 16.0\ngini = 0.01\nsamples = 159\nvalue = [256, 1]", fillcolor="#e5813a"] ;
183 -> 187 ;
188 [label="gini = 0.0\nsamples = 157\nvalue = [255, 0]", fillcolor="#e58139"] ;
187 -> 188 ;
189 [label="X[3] <= 128.0\ngini = 0.5\nsamples = 2\nvalue = [1, 1]", fillcolor="#ffffff"] ;
187 -> 189 ;
190 [label="gini = 0.0\nsamples = 1\nvalue = [0, 1]", fillcolor="#399de5"] ;
189 -> 190 ;
191 [label="gini = 0.0\nsamples = 1\nvalue = [1, 0]", fillcolor="#e58139"] ;
189 -> 191 ;
192 [label="gini = 0.0\nsamples = 71\nvalue = [107, 0]", fillcolor="#e58139"] ;
172 -> 192 ;
193 [label="X[6] <= 0.5\ngini = 0.4\nsamples = 80\nvalue = [95, 36]", fillcolor="#efb184"] ;
143 -> 193 ;
194 [label="X[0] <= 7018.0\ngini = 0.43\nsamples = 55\nvalue = [58, 27]", fillcolor="#f1bc95"] ;
193 -> 194 ;
195 [label="X[4] <= 53.5\ngini = 0.5\nsamples = 33\nvalue = [26, 25]", fillcolor="#fefaf7"] ;
194 -> 195 ;
196 [label="X[3] <= 28.5\ngini = 0.47\nsamples = 24\nvalue = [22, 13]", fillcolor="#f4cbae"] ;
195 -> 196 ;
197 [label="gini = 0.0\nsamples = 3\nvalue = [5, 0]", fillcolor="#e58139"] ;
196 -> 197 ;
198 [label="X[3] <= 44.0\ngini = 0.49\nsamples = 21\nvalue = [17, 13]", fillcolor="#f9e1d0"] ;
196 -> 198 ;
199 [label="X[0] <= 3843.0\ngini = 0.32\nsamples = 3\nvalue = [1, 4]", fillcolor="#6ab6ec"] ;
198 -> 199 ;
200 [label="gini = 0.0\nsamples = 1\nvalue = [0, 2]", fillcolor="#399de5"] ;
199 -> 200 ;
201 [label="X[0] <= 5438.5\ngini = 0.44\nsamples = 2\nvalue = [1, 2]", fillcolor="#9ccef2"] ;
199 -> 201 ;
202 [label="gini = 0.0\nsamples = 1\nvalue = [1, 0]", fillcolor="#e58139"] ;
201 -> 202 ;
203 [label="gini = 0.0\nsamples = 1\nvalue = [0, 2]", fillcolor="#399de5"] ;
201 -> 203 ;
204 [label="X[4] <= 52.5\ngini = 0.46\nsamples = 18\nvalue = [16, 9]", fillcolor="#f4c8a8"] ;
198 -> 204 ;
205 [label="X[0] <= 3979.0\ngini = 0.48\nsamples = 17\nvalue = [14, 9]", fillcolor="#f6d2b8"] ;
204 -> 205 ;
206 [label="X[4] <= 28.5\ngini = 0.46\nsamples = 8\nvalue = [4, 7]", fillcolor="#aad5f4"] ;
205 -> 206 ;
207 [label="gini = 0.0\nsamples = 1\nvalue = [1, 0]", fillcolor="#e58139"] ;
206 -> 207 ;
208 [label="X[0] <= 1216.5\ngini = 0.42\nsamples = 7\nvalue = [3, 7]", fillcolor="#8ec7f0"] ;
206 -> 208 ;
209 [label="X[3] <= 344.0\ngini = 0.5\nsamples = 2\nvalue = [2, 2]", fillcolor="#ffffff"] ;
208 -> 209 ;
210 [label="gini = 0.0\nsamples = 1\nvalue = [0, 2]", fillcolor="#399de5"] ;
209 -> 210 ;
211 [label="gini = 0.0\nsamples = 1\nvalue = [2, 0]", fillcolor="#e58139"] ;
209 -> 211 ;
212 [label="X[0] <= 3278.0\ngini = 0.28\nsamples = 5\nvalue = [1, 5]", fillcolor="#61b1ea"] ;
208 -> 212 ;
213 [label="gini = 0.0\nsamples = 3\nvalue = [0, 4]", fillcolor="#399de5"] ;
212 -> 213 ;
214 [label="X[4] <= 43.5\ngini = 0.5\nsamples = 2\nvalue = [1, 1]", fillcolor="#ffffff"] ;
212 -> 214 ;
215 [label="gini = 0.0\nsamples = 1\nvalue = [0, 1]", fillcolor="#399de5"] ;
214 -> 215 ;
216 [label="gini = 0.0\nsamples = 1\nvalue = [1, 0]", fillcolor="#e58139"] ;
214 -> 216 ;
217 [label="X[4] <= 28.5\ngini = 0.28\nsamples = 9\nvalue = [10, 2]", fillcolor="#ea9a61"] ;
205 -> 217 ;
218 [label="X[0] <= 4976.5\ngini = 0.5\nsamples = 4\nvalue = [2, 2]", fillcolor="#ffffff"] ;
217 -> 218 ;
219 [label="gini = 0.0\nsamples = 2\nvalue = [2, 0]", fillcolor="#e58139"] ;
218 -> 219 ;
220 [label="gini = 0.0\nsamples = 2\nvalue = [0, 2]", fillcolor="#399de5"] ;
218 -> 220 ;
221 [label="gini = 0.0\nsamples = 5\nvalue = [8, 0]", fillcolor="#e58139"] ;
217 -> 221 ;
222 [label="gini = 0.0\nsamples = 1\nvalue = [2, 0]", fillcolor="#e58139"] ;
204 -> 222 ;
223 [label="X[0] <= 5298.5\ngini = 0.38\nsamples = 9\nvalue = [4, 12]", fillcolor="#7bbeee"] ;
195 -> 223 ;
224 [label="X[3] <= 32.0\ngini = 0.48\nsamples = 6\nvalue = [4, 6]", fillcolor="#bddef6"] ;
223 -> 224 ;
225 [label="gini = 0.0\nsamples = 1\nvalue = [2, 0]", fillcolor="#e58139"] ;
224 -> 225 ;
226 [label="X[4] <= 54.5\ngini = 0.38\nsamples = 5\nvalue = [2, 6]", fillcolor="#7bbeee"] ;
224 -> 226 ;
227 [label="gini = 0.0\nsamples = 2\nvalue = [0, 4]", fillcolor="#399de5"] ;
226 -> 227 ;
228 [label="X[3] <= 212.0\ngini = 0.5\nsamples = 3\nvalue = [2, 2]", fillcolor="#ffffff"] ;
226 -> 228 ;
229 [label="gini = 0.0\nsamples = 2\nvalue = [0, 2]", fillcolor="#399de5"] ;
228 -> 229 ;
230 [label="gini = 0.0\nsamples = 1\nvalue = [2, 0]", fillcolor="#e58139"] ;
228 -> 230 ;
231 [label="gini = 0.0\nsamples = 3\nvalue = [0, 6]", fillcolor="#399de5"] ;
223 -> 231 ;
232 [label="X[0] <= 9871.0\ngini = 0.11\nsamples = 22\nvalue = [32, 2]", fillcolor="#e78945"] ;
194 -> 232 ;
233 [label="X[4] <= 55.5\ngini = 0.17\nsamples = 15\nvalue = [19, 2]", fillcolor="#e88e4e"] ;
232 -> 233 ;
234 [label="gini = 0.0\nsamples = 11\nvalue = [17, 0]", fillcolor="#e58139"] ;
233 -> 234 ;
235 [label="X[2] <= 0.5\ngini = 0.5\nsamples = 4\nvalue = [2, 2]", fillcolor="#ffffff"] ;
233 -> 235 ;
236 [label="X[0] <= 7769.0\ngini = 0.44\nsamples = 3\nvalue = [1, 2]", fillcolor="#9ccef2"] ;
235 -> 236 ;
237 [label="gini = 0.0\nsamples = 1\nvalue = [1, 0]", fillcolor="#e58139"] ;
236 -> 237 ;
238 [label="gini = 0.0\nsamples = 2\nvalue = [0, 2]", fillcolor="#399de5"] ;
236 -> 238 ;
239 [label="gini = 0.0\nsamples = 1\nvalue = [1, 0]", fillcolor="#e58139"] ;
235 -> 239 ;
240 [label="gini = 0.0\nsamples = 7\nvalue = [13, 0]", fillcolor="#e58139"] ;
232 -> 240 ;
241 [label="X[0] <= 10369.5\ngini = 0.31\nsamples = 25\nvalue = [37, 9]", fillcolor="#eba069"] ;
193 -> 241 ;
242 [label="X[0] <= 2315.5\ngini = 0.16\nsamples = 19\nvalue = [32, 3]", fillcolor="#e78d4c"] ;
241 -> 242 ;
243 [label="X[0] <= 2105.0\ngini = 0.42\nsamples = 6\nvalue = [7, 3]", fillcolor="#f0b78e"] ;
242 -> 243 ;
244 [label="X[0] <= 1473.5\ngini = 0.22\nsamples = 5\nvalue = [7, 1]", fillcolor="#e99355"] ;
243 -> 244 ;
245 [label="gini = 0.0\nsamples = 3\nvalue = [5, 0]", fillcolor="#e58139"] ;
244 -> 245 ;
246 [label="X[3] <= 103.0\ngini = 0.44\nsamples = 2\nvalue = [2, 1]", fillcolor="#f2c09c"] ;
244 -> 246 ;
247 [label="gini = 0.0\nsamples = 1\nvalue = [2, 0]", fillcolor="#e58139"] ;
246 -> 247 ;
248 [label="gini = 0.0\nsamples = 1\nvalue = [0, 1]", fillcolor="#399de5"] ;
246 -> 248 ;
249 [label="gini = 0.0\nsamples = 1\nvalue = [0, 2]", fillcolor="#399de5"] ;
243 -> 249 ;
250 [label="gini = 0.0\nsamples = 13\nvalue = [25, 0]", fillcolor="#e58139"] ;
242 -> 250 ;
251 [label="X[0] <= 10748.5\ngini = 0.5\nsamples = 6\nvalue = [5, 6]", fillcolor="#deeffb"] ;
241 -> 251 ;
252 [label="gini = 0.0\nsamples = 2\nvalue = [0, 4]", fillcolor="#399de5"] ;
251 -> 252 ;
253 [label="X[2] <= 0.5\ngini = 0.41\nsamples = 4\nvalue = [5, 2]", fillcolor="#efb388"] ;
251 -> 253 ;
254 [label="X[4] <= 28.5\ngini = 0.44\nsamples = 3\nvalue = [4, 2]", fillcolor="#f2c09c"] ;
253 -> 254 ;
255 [label="gini = 0.0\nsamples = 1\nvalue = [0, 2]", fillcolor="#399de5"] ;
254 -> 255 ;
256 [label="gini = 0.0\nsamples = 2\nvalue = [4, 0]", fillcolor="#e58139"] ;
254 -> 256 ;
257 [label="gini = 0.0\nsamples = 1\nvalue = [1, 0]", fillcolor="#e58139"] ;
253 -> 257 ;
258 [label="X[3] <= 51.5\ngini = 0.05\nsamples = 566\nvalue = [853, 24]", fillcolor="#e6853f"] ;
142 -> 258 ;
259 [label="X[0] <= 462.5\ngini = 0.02\nsamples = 210\nvalue = [311, 3]", fillcolor="#e5823b"] ;
258 -> 259 ;
260 [label="X[2] <= 0.5\ngini = 0.22\nsamples = 5\nvalue = [7, 1]", fillcolor="#e99355"] ;
259 -> 260 ;
261 [label="X[4] <= 28.0\ngini = 0.24\nsamples = 4\nvalue = [6, 1]", fillcolor="#e9965a"] ;
260 -> 261 ;
262 [label="gini = 0.0\nsamples = 3\nvalue = [6, 0]", fillcolor="#e58139"] ;
261 -> 262 ;
263 [label="gini = 0.0\nsamples = 1\nvalue = [0, 1]", fillcolor="#399de5"] ;
261 -> 263 ;
264 [label="gini = 0.0\nsamples = 1\nvalue = [1, 0]", fillcolor="#e58139"] ;
260 -> 264 ;
265 [label="X[3] <= 9.5\ngini = 0.01\nsamples = 205\nvalue = [304, 2]", fillcolor="#e5823a"] ;
259 -> 265 ;
266 [label="X[4] <= 44.0\ngini = 0.04\nsamples = 75\nvalue = [107, 2]", fillcolor="#e5833d"] ;
265 -> 266 ;
267 [label="gini = 0.0\nsamples = 73\nvalue = [107, 0]", fillcolor="#e58139"] ;
266 -> 267 ;
268 [label="gini = 0.0\nsamples = 2\nvalue = [0, 2]", fillcolor="#399de5"] ;
266 -> 268 ;
269 [label="gini = 0.0\nsamples = 130\nvalue = [197, 0]", fillcolor="#e58139"] ;
265 -> 269 ;
270 [label="X[6] <= 0.5\ngini = 0.07\nsamples = 356\nvalue = [542, 21]", fillcolor="#e68641"] ;
258 -> 270 ;
271 [label="X[0] <= 1264.5\ngini = 0.05\nsamples = 242\nvalue = [370, 9]", fillcolor="#e6843e"] ;
270 -> 271 ;
272 [label="X[0] <= 1224.0\ngini = 0.19\nsamples = 29\nvalue = [41, 5]", fillcolor="#e89051"] ;
271 -> 272 ;
273 [label="X[4] <= 13.5\ngini = 0.09\nsamples = 28\nvalue = [41, 2]", fillcolor="#e68743"] ;
272 -> 273 ;
274 [label="gini = 0.0\nsamples = 26\nvalue = [40, 0]", fillcolor="#e58139"] ;
273 -> 274 ;
275 [label="X[2] <= 0.5\ngini = 0.44\nsamples = 2\nvalue = [1, 2]", fillcolor="#9ccef2"] ;
273 -> 275 ;
276 [label="gini = 0.0\nsamples = 1\nvalue = [0, 2]", fillcolor="#399de5"] ;
275 -> 276 ;
277 [label="gini = 0.0\nsamples = 1\nvalue = [1, 0]", fillcolor="#e58139"] ;
275 -> 277 ;
278 [label="gini = 0.0\nsamples = 1\nvalue = [0, 3]", fillcolor="#399de5"] ;
272 -> 278 ;
279 [label="X[0] <= 6177.5\ngini = 0.02\nsamples = 213\nvalue = [329, 4]", fillcolor="#e5833b"] ;
271 -> 279 ;
280 [label="X[4] <= 21.0\ngini = 0.04\nsamples = 116\nvalue = [176, 4]", fillcolor="#e6843d"] ;
279 -> 280 ;
281 [label="gini = 0.0\nsamples = 110\nvalue = [170, 0]", fillcolor="#e58139"] ;
280 -> 281 ;
282 [label="X[0] <= 4705.5\ngini = 0.48\nsamples = 6\nvalue = [6, 4]", fillcolor="#f6d5bd"] ;
280 -> 282 ;
283 [label="X[3] <= 150.0\ngini = 0.48\nsamples = 2\nvalue = [2, 3]", fillcolor="#bddef6"] ;
282 -> 283 ;
284 [label="gini = 0.0\nsamples = 1\nvalue = [2, 0]", fillcolor="#e58139"] ;
283 -> 284 ;
285 [label="gini = 0.0\nsamples = 1\nvalue = [0, 3]", fillcolor="#399de5"] ;
283 -> 285 ;
286 [label="X[3] <= 107.5\ngini = 0.32\nsamples = 4\nvalue = [4, 1]", fillcolor="#eca06a"] ;
282 -> 286 ;
287 [label="gini = 0.0\nsamples = 1\nvalue = [0, 1]", fillcolor="#399de5"] ;
286 -> 287 ;
288 [label="gini = 0.0\nsamples = 3\nvalue = [4, 0]", fillcolor="#e58139"] ;
286 -> 288 ;
289 [label="gini = 0.0\nsamples = 97\nvalue = [153, 0]", fillcolor="#e58139"] ;
279 -> 289 ;
290 [label="X[4] <= 17.5\ngini = 0.12\nsamples = 114\nvalue = [172, 12]", fillcolor="#e78a47"] ;
270 -> 290 ;
291 [label="gini = 0.0\nsamples = 99\nvalue = [164, 0]", fillcolor="#e58139"] ;
290 -> 291 ;
292 [label="X[0] <= 10967.5\ngini = 0.48\nsamples = 15\nvalue = [8, 12]", fillcolor="#bddef6"] ;
290 -> 292 ;
293 [label="X[0] <= 8433.0\ngini = 0.49\nsamples = 14\nvalue = [8, 10]", fillcolor="#d7ebfa"] ;
292 -> 293 ;
294 [label="X[2] <= 0.5\ngini = 0.47\nsamples = 12\nvalue = [6, 10]", fillcolor="#b0d8f5"] ;
293 -> 294 ;
295 [label="X[4] <= 32.5\ngini = 0.44\nsamples = 7\nvalue = [3, 6]", fillcolor="#9ccef2"] ;
294 -> 295 ;
296 [label="X[3] <= 263.0\ngini = 0.38\nsamples = 3\nvalue = [3, 1]", fillcolor="#eeab7b"] ;
295 -> 296 ;
297 [label="gini = 0.0\nsamples = 1\nvalue = [0, 1]", fillcolor="#399de5"] ;
296 -> 297 ;
298 [label="gini = 0.0\nsamples = 2\nvalue = [3, 0]", fillcolor="#e58139"] ;
296 -> 298 ;
299 [label="gini = 0.0\nsamples = 4\nvalue = [0, 5]", fillcolor="#399de5"] ;
295 -> 299 ;
300 [label="X[0] <= 3262.5\ngini = 0.49\nsamples = 5\nvalue = [3, 4]", fillcolor="#cee6f8"] ;
294 -> 300 ;
301 [label="X[0] <= 3010.5\ngini = 0.38\nsamples = 3\nvalue = [3, 1]", fillcolor="#eeab7b"] ;
300 -> 301 ;
302 [label="X[3] <= 167.0\ngini = 0.5\nsamples = 2\nvalue = [1, 1]", fillcolor="#ffffff"] ;
301 -> 302 ;
303 [label="gini = 0.0\nsamples = 1\nvalue = [0, 1]", fillcolor="#399de5"] ;
302 -> 303 ;
304 [label="gini = 0.0\nsamples = 1\nvalue = [1, 0]", fillcolor="#e58139"] ;
302 -> 304 ;
305 [label="gini = 0.0\nsamples = 1\nvalue = [2, 0]", fillcolor="#e58139"] ;
301 -> 305 ;
306 [label="gini = 0.0\nsamples = 2\nvalue = [0, 3]", fillcolor="#399de5"] ;
300 -> 306 ;
307 [label="gini = 0.0\nsamples = 2\nvalue = [2, 0]", fillcolor="#e58139"] ;
293 -> 307 ;
308 [label="gini = 0.0\nsamples = 1\nvalue = [0, 2]", fillcolor="#399de5"] ;
292 -> 308 ;
309 [label="X[0] <= 7839.0\ngini = 0.13\nsamples = 80\nvalue = [105, 8]", fillcolor="#e78b48"] ;
141 -> 309 ;
310 [label="X[2] <= 0.5\ngini = 0.19\nsamples = 52\nvalue = [67, 8]", fillcolor="#e89051"] ;
309 -> 310 ;
311 [label="X[4] <= 14.0\ngini = 0.17\nsamples = 45\nvalue = [60, 6]", fillcolor="#e88e4d"] ;
310 -> 311 ;
312 [label="gini = 0.0\nsamples = 41\nvalue = [59, 0]", fillcolor="#e58139"] ;
311 -> 312 ;
313 [label="X[7] <= 0.5\ngini = 0.24\nsamples = 4\nvalue = [1, 6]", fillcolor="#5aade9"] ;
311 -> 313 ;
314 [label="gini = 0.0\nsamples = 1\nvalue = [1, 0]", fillcolor="#e58139"] ;
313 -> 314 ;
315 [label="gini = 0.0\nsamples = 3\nvalue = [0, 6]", fillcolor="#399de5"] ;
313 -> 315 ;
316 [label="X[3] <= 395.5\ngini = 0.35\nsamples = 7\nvalue = [7, 2]", fillcolor="#eca572"] ;
310 -> 316 ;
317 [label="gini = 0.0\nsamples = 1\nvalue = [0, 2]", fillcolor="#399de5"] ;
316 -> 317 ;
318 [label="gini = 0.0\nsamples = 6\nvalue = [7, 0]", fillcolor="#e58139"] ;
316 -> 318 ;
319 [label="gini = 0.0\nsamples = 28\nvalue = [38, 0]", fillcolor="#e58139"] ;
309 -> 319 ;
320 [label="X[4] <= 98.0\ngini = 0.15\nsamples = 700\nvalue = [88, 1025]", fillcolor="#4aa5e7"] ;
0 -> 320 [labeldistance=2.5, labelangle=-45, headlabel="False"] ;
321 [label="X[1] <= 0.5\ngini = 0.47\nsamples = 97\nvalue = [64, 102]", fillcolor="#b5daf5"] ;
320 -> 321 ;
322 [label="X[4] <= 78.5\ngini = 0.49\nsamples = 71\nvalue = [50, 66]", fillcolor="#cfe7f9"] ;
321 -> 322 ;
323 [label="X[3] <= 31.0\ngini = 0.49\nsamples = 37\nvalue = [37, 27]", fillcolor="#f8ddc9"] ;
322 -> 323 ;
324 [label="X[6] <= 0.5\ngini = 0.45\nsamples = 10\nvalue = [7, 13]", fillcolor="#a4d2f3"] ;
323 -> 324 ;
325 [label="X[4] <= 71.0\ngini = 0.5\nsamples = 6\nvalue = [5, 5]", fillcolor="#ffffff"] ;
324 -> 325 ;
326 [label="gini = 0.0\nsamples = 3\nvalue = [0, 5]", fillcolor="#399de5"] ;
325 -> 326 ;
327 [label="gini = 0.0\nsamples = 3\nvalue = [5, 0]", fillcolor="#e58139"] ;
325 -> 327 ;
328 [label="X[3] <= 22.0\ngini = 0.32\nsamples = 4\nvalue = [2, 8]", fillcolor="#6ab6ec"] ;
324 -> 328 ;
329 [label="gini = 0.0\nsamples = 2\nvalue = [0, 6]", fillcolor="#399de5"] ;
328 -> 329 ;
330 [label="X[4] <= 68.5\ngini = 0.5\nsamples = 2\nvalue = [2, 2]", fillcolor="#ffffff"] ;
328 -> 330 ;
331 [label="gini = 0.0\nsamples = 1\nvalue = [0, 2]", fillcolor="#399de5"] ;
330 -> 331 ;
332 [label="gini = 0.0\nsamples = 1\nvalue = [2, 0]", fillcolor="#e58139"] ;
330 -> 332 ;
333 [label="X[3] <= 337.0\ngini = 0.43\nsamples = 27\nvalue = [30, 14]", fillcolor="#f1bc95"] ;
323 -> 333 ;
334 [label="X[0] <= 8885.5\ngini = 0.38\nsamples = 24\nvalue = [30, 10]", fillcolor="#eeab7b"] ;
333 -> 334 ;
335 [label="X[0] <= 1906.0\ngini = 0.19\nsamples = 17\nvalue = [26, 3]", fillcolor="#e89050"] ;
334 -> 335 ;
336 [label="X[0] <= 1489.0\ngini = 0.44\nsamples = 5\nvalue = [4, 2]", fillcolor="#f2c09c"] ;
335 -> 336 ;
337 [label="gini = 0.0\nsamples = 4\nvalue = [4, 0]", fillcolor="#e58139"] ;
336 -> 337 ;
338 [label="gini = 0.0\nsamples = 1\nvalue = [0, 2]", fillcolor="#399de5"] ;
336 -> 338 ;
339 [label="X[3] <= 194.0\ngini = 0.08\nsamples = 12\nvalue = [22, 1]", fillcolor="#e68742"] ;
335 -> 339 ;
340 [label="gini = 0.0\nsamples = 8\nvalue = [12, 0]", fillcolor="#e58139"] ;
339 -> 340 ;
341 [label="X[0] <= 5093.5\ngini = 0.17\nsamples = 4\nvalue = [10, 1]", fillcolor="#e88e4d"] ;
339 -> 341 ;
342 [label="gini = 0.0\nsamples = 2\nvalue = [7, 0]", fillcolor="#e58139"] ;
341 -> 342 ;
343 [label="X[7] <= 0.5\ngini = 0.38\nsamples = 2\nvalue = [3, 1]", fillcolor="#eeab7b"] ;
341 -> 343 ;
344 [label="gini = 0.0\nsamples = 1\nvalue = [3, 0]", fillcolor="#e58139"] ;
343 -> 344 ;
345 [label="gini = 0.0\nsamples = 1\nvalue = [0, 1]", fillcolor="#399de5"] ;
343 -> 345 ;
346 [label="X[8] <= 0.5\ngini = 0.46\nsamples = 7\nvalue = [4, 7]", fillcolor="#aad5f4"] ;
334 -> 346 ;
347 [label="X[0] <= 9808.0\ngini = 0.48\nsamples = 6\nvalue = [4, 6]", fillcolor="#bddef6"] ;
346 -> 347 ;
348 [label="gini = 0.0\nsamples = 2\nvalue = [0, 3]", fillcolor="#399de5"] ;
347 -> 348 ;
349 [label="X[0] <= 10448.0\ngini = 0.49\nsamples = 4\nvalue = [4, 3]", fillcolor="#f8e0ce"] ;
347 -> 349 ;
350 [label="gini = 0.0\nsamples = 1\nvalue = [3, 0]", fillcolor="#e58139"] ;
349 -> 350 ;
351 [label="X[0] <= 10658.0\ngini = 0.38\nsamples = 3\nvalue = [1, 3]", fillcolor="#7bbeee"] ;
349 -> 351 ;
352 [label="gini = 0.0\nsamples = 1\nvalue = [0, 2]", fillcolor="#399de5"] ;
351 -> 352 ;
353 [label="X[9] <= 0.5\ngini = 0.5\nsamples = 2\nvalue = [1, 1]", fillcolor="#ffffff"] ;
351 -> 353 ;
354 [label="gini = 0.0\nsamples = 1\nvalue = [1, 0]", fillcolor="#e58139"] ;
353 -> 354 ;
355 [label="gini = 0.0\nsamples = 1\nvalue = [0, 1]", fillcolor="#399de5"] ;
353 -> 355 ;
356 [label="gini = 0.0\nsamples = 1\nvalue = [0, 1]", fillcolor="#399de5"] ;
346 -> 356 ;
357 [label="gini = 0.0\nsamples = 3\nvalue = [0, 4]", fillcolor="#399de5"] ;
333 -> 357 ;
358 [label="X[3] <= 199.0\ngini = 0.38\nsamples = 34\nvalue = [13, 39]", fillcolor="#7bbeee"] ;
322 -> 358 ;
359 [label="X[8] <= 0.5\ngini = 0.26\nsamples = 27\nvalue = [6, 34]", fillcolor="#5caeea"] ;
358 -> 359 ;
360 [label="X[3] <= 67.0\ngini = 0.19\nsamples = 25\nvalue = [4, 34]", fillcolor="#50a9e8"] ;
359 -> 360 ;
361 [label="X[3] <= 37.5\ngini = 0.38\nsamples = 12\nvalue = [4, 12]", fillcolor="#7bbeee"] ;
360 -> 361 ;
362 [label="X[5] <= 0.5\ngini = 0.24\nsamples = 10\nvalue = [2, 12]", fillcolor="#5aade9"] ;
361 -> 362 ;
363 [label="gini = 0.0\nsamples = 3\nvalue = [0, 5]", fillcolor="#399de5"] ;
362 -> 363 ;
364 [label="X[6] <= 0.5\ngini = 0.35\nsamples = 7\nvalue = [2, 7]", fillcolor="#72b9ec"] ;
362 -> 364 ;
365 [label="X[4] <= 84.5\ngini = 0.38\nsamples = 4\nvalue = [1, 3]", fillcolor="#7bbeee"] ;
364 -> 365 ;
366 [label="gini = 0.0\nsamples = 2\nvalue = [0, 2]", fillcolor="#399de5"] ;
365 -> 366 ;
367 [label="X[0] <= 5169.0\ngini = 0.5\nsamples = 2\nvalue = [1, 1]", fillcolor="#ffffff"] ;
365 -> 367 ;
368 [label="gini = 0.0\nsamples = 1\nvalue = [1, 0]", fillcolor="#e58139"] ;
367 -> 368 ;
369 [label="gini = 0.0\nsamples = 1\nvalue = [0, 1]", fillcolor="#399de5"] ;
367 -> 369 ;
370 [label="X[0] <= 4497.5\ngini = 0.32\nsamples = 3\nvalue = [1, 4]", fillcolor="#6ab6ec"] ;
364 -> 370 ;
371 [label="gini = 0.0\nsamples = 2\nvalue = [0, 4]", fillcolor="#399de5"] ;
370 -> 371 ;
372 [label="gini = 0.0\nsamples = 1\nvalue = [1, 0]", fillcolor="#e58139"] ;
370 -> 372 ;
373 [label="gini = 0.0\nsamples = 2\nvalue = [2, 0]", fillcolor="#e58139"] ;
361 -> 373 ;
374 [label="gini = 0.0\nsamples = 13\nvalue = [0, 22]", fillcolor="#399de5"] ;
360 -> 374 ;
375 [label="gini = 0.0\nsamples = 2\nvalue = [2, 0]", fillcolor="#e58139"] ;
359 -> 375 ;
376 [label="X[9] <= 0.5\ngini = 0.49\nsamples = 7\nvalue = [7, 5]", fillcolor="#f8dbc6"] ;
358 -> 376 ;
377 [label="X[8] <= 0.5\ngini = 0.42\nsamples = 6\nvalue = [7, 3]", fillcolor="#f0b78e"] ;
376 -> 377 ;
378 [label="X[3] <= 236.0\ngini = 0.35\nsamples = 5\nvalue = [7, 2]", fillcolor="#eca572"] ;
377 -> 378 ;
379 [label="gini = 0.0\nsamples = 2\nvalue = [5, 0]", fillcolor="#e58139"] ;
378 -> 379 ;
380 [label="X[0] <= 115.5\ngini = 0.5\nsamples = 3\nvalue = [2, 2]", fillcolor="#ffffff"] ;
378 -> 380 ;
381 [label="gini = 0.0\nsamples = 1\nvalue = [2, 0]", fillcolor="#e58139"] ;
380 -> 381 ;
382 [label="gini = 0.0\nsamples = 2\nvalue = [0, 2]", fillcolor="#399de5"] ;
380 -> 382 ;
383 [label="gini = 0.0\nsamples = 1\nvalue = [0, 1]", fillcolor="#399de5"] ;
377 -> 383 ;
384 [label="gini = 0.0\nsamples = 1\nvalue = [0, 2]", fillcolor="#399de5"] ;
376 -> 384 ;
385 [label="X[2] <= 0.5\ngini = 0.4\nsamples = 26\nvalue = [14, 36]", fillcolor="#86c3ef"] ;
321 -> 385 ;
386 [label="X[9] <= 0.5\ngini = 0.34\nsamples = 14\nvalue = [6, 22]", fillcolor="#6fb8ec"] ;
385 -> 386 ;
387 [label="X[0] <= 9947.5\ngini = 0.42\nsamples = 11\nvalue = [6, 14]", fillcolor="#8ec7f0"] ;
386 -> 387 ;
388 [label="X[4] <= 70.0\ngini = 0.35\nsamples = 10\nvalue = [4, 14]", fillcolor="#72b9ec"] ;
387 -> 388 ;
389 [label="gini = 0.0\nsamples = 1\nvalue = [2, 0]", fillcolor="#e58139"] ;
388 -> 389 ;
390 [label="X[4] <= 81.5\ngini = 0.22\nsamples = 9\nvalue = [2, 14]", fillcolor="#55abe9"] ;
388 -> 390 ;
391 [label="gini = 0.0\nsamples = 6\nvalue = [0, 11]", fillcolor="#399de5"] ;
390 -> 391 ;
392 [label="X[0] <= 8617.0\ngini = 0.48\nsamples = 3\nvalue = [2, 3]", fillcolor="#bddef6"] ;
390 -> 392 ;
393 [label="gini = 0.0\nsamples = 1\nvalue = [0, 2]", fillcolor="#399de5"] ;
392 -> 393 ;
394 [label="X[4] <= 82.5\ngini = 0.44\nsamples = 2\nvalue = [2, 1]", fillcolor="#f2c09c"] ;
392 -> 394 ;
395 [label="gini = 0.0\nsamples = 1\nvalue = [2, 0]", fillcolor="#e58139"] ;
394 -> 395 ;
396 [label="gini = 0.0\nsamples = 1\nvalue = [0, 1]", fillcolor="#399de5"] ;
394 -> 396 ;
397 [label="gini = 0.0\nsamples = 1\nvalue = [2, 0]", fillcolor="#e58139"] ;
387 -> 397 ;
398 [label="gini = 0.0\nsamples = 3\nvalue = [0, 8]", fillcolor="#399de5"] ;
386 -> 398 ;
399 [label="X[3] <= 382.5\ngini = 0.46\nsamples = 12\nvalue = [8, 14]", fillcolor="#aad5f4"] ;
385 -> 399 ;
400 [label="X[10] <= 0.5\ngini = 0.49\nsamples = 10\nvalue = [8, 10]", fillcolor="#d7ebfa"] ;
399 -> 400 ;
401 [label="X[9] <= 0.5\ngini = 0.5\nsamples = 9\nvalue = [8, 8]", fillcolor="#ffffff"] ;
400 -> 401 ;
402 [label="X[0] <= 4386.5\ngini = 0.5\nsamples = 6\nvalue = [5, 5]", fillcolor="#ffffff"] ;
401 -> 402 ;
403 [label="gini = 0.0\nsamples = 2\nvalue = [0, 4]", fillcolor="#399de5"] ;
402 -> 403 ;
404 [label="X[5] <= 0.5\ngini = 0.28\nsamples = 4\nvalue = [5, 1]", fillcolor="#ea9a61"] ;
402 -> 404 ;
405 [label="gini = 0.0\nsamples = 1\nvalue = [0, 1]", fillcolor="#399de5"] ;
404 -> 405 ;
406 [label="gini = 0.0\nsamples = 3\nvalue = [5, 0]", fillcolor="#e58139"] ;
404 -> 406 ;
407 [label="X[3] <= 221.0\ngini = 0.5\nsamples = 3\nvalue = [3, 3]", fillcolor="#ffffff"] ;
401 -> 407 ;
408 [label="gini = 0.0\nsamples = 2\nvalue = [0, 3]", fillcolor="#399de5"] ;
407 -> 408 ;
409 [label="gini = 0.0\nsamples = 1\nvalue = [3, 0]", fillcolor="#e58139"] ;
407 -> 409 ;
410 [label="gini = 0.0\nsamples = 1\nvalue = [0, 2]", fillcolor="#399de5"] ;
400 -> 410 ;
411 [label="gini = 0.0\nsamples = 2\nvalue = [0, 4]", fillcolor="#399de5"] ;
399 -> 411 ;
412 [label="X[5] <= 0.5\ngini = 0.05\nsamples = 603\nvalue = [24, 923]", fillcolor="#3ea0e6"] ;
320 -> 412 ;
413 [label="X[8] <= 0.5\ngini = 0.01\nsamples = 274\nvalue = [3, 421]", fillcolor="#3a9ee5"] ;
412 -> 413 ;
414 [label="X[0] <= 2441.5\ngini = 0.02\nsamples = 209\nvalue = [3, 316]", fillcolor="#3b9ee5"] ;
413 -> 414 ;
415 [label="X[3] <= 88.5\ngini = 0.06\nsamples = 39\nvalue = [2, 61]", fillcolor="#3fa0e6"] ;
414 -> 415 ;
416 [label="X[2] <= 0.5\ngini = 0.17\nsamples = 14\nvalue = [2, 19]", fillcolor="#4ea7e8"] ;
415 -> 416 ;
417 [label="X[0] <= 2396.5\ngini = 0.28\nsamples = 9\nvalue = [2, 10]", fillcolor="#61b1ea"] ;
416 -> 417 ;
418 [label="gini = 0.0\nsamples = 8\nvalue = [0, 10]", fillcolor="#399de5"] ;
417 -> 418 ;
419 [label="gini = 0.0\nsamples = 1\nvalue = [2, 0]", fillcolor="#e58139"] ;
417 -> 419 ;
420 [label="gini = 0.0\nsamples = 5\nvalue = [0, 9]", fillcolor="#399de5"] ;
416 -> 420 ;
421 [label="gini = 0.0\nsamples = 25\nvalue = [0, 42]", fillcolor="#399de5"] ;
415 -> 421 ;
422 [label="X[9] <= 0.5\ngini = 0.01\nsamples = 170\nvalue = [1, 255]", fillcolor="#3a9de5"] ;
414 -> 422 ;
423 [label="X[0] <= 6364.0\ngini = 0.02\nsamples = 70\nvalue = [1, 104]", fillcolor="#3b9ee5"] ;
422 -> 423 ;
424 [label="gini = 0.0\nsamples = 33\nvalue = [0, 54]", fillcolor="#399de5"] ;
423 -> 424 ;
425 [label="X[4] <= 175.5\ngini = 0.04\nsamples = 37\nvalue = [1, 50]", fillcolor="#3d9fe6"] ;
423 -> 425 ;
426 [label="X[0] <= 8102.0\ngini = 0.38\nsamples = 3\nvalue = [1, 3]", fillcolor="#7bbeee"] ;
425 -> 426 ;
427 [label="gini = 0.0\nsamples = 1\nvalue = [1, 0]", fillcolor="#e58139"] ;
426 -> 427 ;
428 [label="gini = 0.0\nsamples = 2\nvalue = [0, 3]", fillcolor="#399de5"] ;
426 -> 428 ;
429 [label="gini = 0.0\nsamples = 34\nvalue = [0, 47]", fillcolor="#399de5"] ;
425 -> 429 ;
430 [label="gini = 0.0\nsamples = 100\nvalue = [0, 151]", fillcolor="#399de5"] ;
422 -> 430 ;
431 [label="gini = 0.0\nsamples = 65\nvalue = [0, 105]", fillcolor="#399de5"] ;
413 -> 431 ;
432 [label="X[3] <= 0.5\ngini = 0.08\nsamples = 329\nvalue = [21, 502]", fillcolor="#41a1e6"] ;
412 -> 432 ;
433 [label="gini = 0.0\nsamples = 1\nvalue = [1, 0]", fillcolor="#e58139"] ;
432 -> 433 ;
434 [label="X[2] <= 0.5\ngini = 0.07\nsamples = 328\nvalue = [20, 502]", fillcolor="#41a1e6"] ;
432 -> 434 ;
435 [label="X[6] <= 0.5\ngini = 0.09\nsamples = 268\nvalue = [20, 403]", fillcolor="#43a2e6"] ;
434 -> 435 ;
436 [label="X[4] <= 174.0\ngini = 0.1\nsamples = 176\nvalue = [15, 259]", fillcolor="#44a3e7"] ;
435 -> 436 ;
437 [label="X[4] <= 166.0\ngini = 0.34\nsamples = 48\nvalue = [15, 55]", fillcolor="#6fb8ec"] ;
436 -> 437 ;
438 [label="X[3] <= 182.5\ngini = 0.3\nsamples = 45\nvalue = [12, 54]", fillcolor="#65b3eb"] ;
437 -> 438 ;
439 [label="X[0] <= 10908.0\ngini = 0.44\nsamples = 24\nvalue = [12, 25]", fillcolor="#98ccf1"] ;
438 -> 439 ;
440 [label="X[3] <= 55.0\ngini = 0.37\nsamples = 22\nvalue = [8, 25]", fillcolor="#78bced"] ;
439 -> 440 ;
441 [label="gini = 0.0\nsamples = 9\nvalue = [0, 11]", fillcolor="#399de5"] ;
440 -> 441 ;
442 [label="X[0] <= 5225.0\ngini = 0.46\nsamples = 13\nvalue = [8, 14]", fillcolor="#aad5f4"] ;
440 -> 442 ;
443 [label="X[4] <= 137.5\ngini = 0.47\nsamples = 8\nvalue = [8, 5]", fillcolor="#f5d0b5"] ;
442 -> 443 ;
444 [label="gini = 0.0\nsamples = 3\nvalue = [7, 0]", fillcolor="#e58139"] ;
443 -> 444 ;
445 [label="X[0] <= 2733.0\ngini = 0.28\nsamples = 5\nvalue = [1, 5]", fillcolor="#61b1ea"] ;
443 -> 445 ;
446 [label="X[3] <= 93.5\ngini = 0.5\nsamples = 2\nvalue = [1, 1]", fillcolor="#ffffff"] ;
445 -> 446 ;
447 [label="gini = 0.0\nsamples = 1\nvalue = [0, 1]", fillcolor="#399de5"] ;
446 -> 447 ;
448 [label="gini = 0.0\nsamples = 1\nvalue = [1, 0]", fillcolor="#e58139"] ;
446 -> 448 ;
449 [label="gini = 0.0\nsamples = 3\nvalue = [0, 4]", fillcolor="#399de5"] ;
445 -> 449 ;
450 [label="gini = 0.0\nsamples = 5\nvalue = [0, 9]", fillcolor="#399de5"] ;
442 -> 450 ;
451 [label="gini = 0.0\nsamples = 2\nvalue = [4, 0]", fillcolor="#e58139"] ;
439 -> 451 ;
452 [label="gini = 0.0\nsamples = 21\nvalue = [0, 29]", fillcolor="#399de5"] ;
438 -> 452 ;
453 [label="X[0] <= 7870.0\ngini = 0.38\nsamples = 3\nvalue = [3, 1]", fillcolor="#eeab7b"] ;
437 -> 453 ;
454 [label="gini = 0.0\nsamples = 2\nvalue = [3, 0]", fillcolor="#e58139"] ;
453 -> 454 ;
455 [label="gini = 0.0\nsamples = 1\nvalue = [0, 1]", fillcolor="#399de5"] ;
453 -> 455 ;
456 [label="gini = 0.0\nsamples = 128\nvalue = [0, 204]", fillcolor="#399de5"] ;
436 -> 456 ;
457 [label="X[4] <= 132.0\ngini = 0.06\nsamples = 92\nvalue = [5, 144]", fillcolor="#40a0e6"] ;
435 -> 457 ;
458 [label="X[0] <= 11036.5\ngini = 0.46\nsamples = 10\nvalue = [5, 9]", fillcolor="#a7d3f3"] ;
457 -> 458 ;
459 [label="X[0] <= 6294.0\ngini = 0.38\nsamples = 8\nvalue = [3, 9]", fillcolor="#7bbeee"] ;
458 -> 459 ;
460 [label="X[4] <= 109.0\ngini = 0.49\nsamples = 4\nvalue = [3, 4]", fillcolor="#cee6f8"] ;
459 -> 460 ;
461 [label="gini = 0.0\nsamples = 2\nvalue = [0, 4]", fillcolor="#399de5"] ;
460 -> 461 ;
462 [label="gini = 0.0\nsamples = 2\nvalue = [3, 0]", fillcolor="#e58139"] ;
460 -> 462 ;
463 [label="gini = 0.0\nsamples = 4\nvalue = [0, 5]", fillcolor="#399de5"] ;
459 -> 463 ;
464 [label="gini = 0.0\nsamples = 2\nvalue = [2, 0]", fillcolor="#e58139"] ;
458 -> 464 ;
465 [label="gini = 0.0\nsamples = 82\nvalue = [0, 135]", fillcolor="#399de5"] ;
457 -> 465 ;
466 [label="gini = 0.0\nsamples = 60\nvalue = [0, 99]", fillcolor="#399de5"] ;
434 -> 466 ;
}